0.380587128181,0.447649815195,2.47035621337,0.229205981769,0.42027856581,-0.00508203743587,-0.277571019651,1.40393074119,-0.294433374148,-0.0754237028444,-0.316652383859,-0.195888861081,-0.216711789974,-0.379731502801,-0.300316185026,-0.311575391351,-0.0310153276036,-0.159081821205,-0.197739094484,-0.265481988559,-0.146364809468,-0.0793089700233,-0.0163473212062,0.137365209137,0.216782017254,-0.30030963212,0.172716576898,-0.318474488536,0.171769847658,-0.165606878688,-0.424927772618,0.0347194723702,0.66700593446,-0.118978617155,-0.772347963146,-0.259344193782,-0.241485673912,0.00191921206013,1.40022890929,-0.0884284637794,0.10385298178,-0.254888010598,-0.229090738814,-0.176348250305,-0.566967198708,-0.224282390592,0.0456144056312,0.0789320822155,0.0171695923597,0.105187960963,-0.131318825168,-0.0686164093569,-0.190199786738,0.289220545989,-0.182367354678,-0.405150781241,0.218809839348,0.254346613418,-0.252308397062,-0.317843831254,-0.649254220082,-0.15201426153,-0.672785977464,1.31047110583,-0.195634811216,-0.169934703495,-0.463580884471,-0.0976085441854,-0.541139231664,-0.318038278426,-0.110668310572,-0.183835754968,-0.0524091298067,-0.177816825699,-0.0928635989022,-0.462339012631,-0.204967639484,1.39893846256,-0.202489050522,-0.0422599208738,1.26507399193,-0.187445417997,-0.0259063981653,-0.297737964051,-0.121582842103,-0.298834179462,-0.179318875312,-0.0308201562587,-0.363197885709,-0.350253633297,-0.247067467095,-0.0853026212656,-0.101026944853,-0.106683946896,-0.110490619038,-0.244468840315,-0.0476787285673,-0.572017705275,-0.123996024134,-0.202256598836,-0.0238722558303,-0.779871371091,-0.0886211549014,-0.0663908440171,-0.401736967758,-2.19286921265
