0.472033930931,0.516295544468,2.62857075621,0.299678665252,0.41435221816,0.110638770285,-0.00842442644357,-0.026756132501,-0.00441582307817,0.0828437121922,0.00493750562705,-0.0644068113189,0.0056259311463,-0.0792700004977,-0.125889330362,-0.703081774996,0.0145229651787,-0.481595596452,-0.161922050356,-0.114860279464,-0.231553854029,0.0495205910269,0.0156289337929,0.419634968295,0.31125383615,-0.152673827842,0.341208820026,-0.620514480688,0.261574094094,0.0688296675874,-0.381552532056,0.0369933382047,1.17615812555,-0.212247750482,-0.796440045106,-0.136655885894,-0.201438313441,-0.081805628038,0.039077878656,0.0259364650455,0.332906978551,-0.315491182372,-0.132466655124,-0.0730965149463,-0.293964262902,-0.328523564752,0.148401864459,0.119637143518,0.151142405791,0.139714610866,-0.011024857143,-0.0808260580324,0.00313940649708,0.196933524116,-0.246839638436,-0.322315607778,0.111103277462,0.174464547586,0.00663436574991,-0.116422521838,-0.0373111604099,-0.0630654304515,0.103224951501,0.0356719237419,0.0874330595025,-0.164432161886,0.0195698104552,0.0689436905402,-0.299449465924,-0.182601775132,-0.0431092789276,0.0213938598558,-0.101852922761,0.0111968772588,-0.0415599104528,-0.15212254969,-0.0232462699994,0.013024359213,-0.0783348101926,0.0582637071539,-0.132835706591,-0.0182845554428,-0.0577006043338,-0.0957893657672,0.107850349771,0.0598589698834,0.0759188299961,-0.0921273143484,0.0524537670791,-0.121640496467,-0.024293164994,-0.139705619954,0.0450708993905,-0.00586751087117,-0.155049299164,0.0365842311976,-0.062135022925,-0.394875006119,-0.0353534462622,-0.0057991586583,-0.109612437518,0.153847434755,0.0249307822887,0.0935905048632,0.0295391016316,-2.35051369493
